34 128
34 0.023995135 -0.14844981 0.10667447 -0.05684437 -0.018965485 -0.13399497 -0.023346653 -0.01866676 0.016536366 -0.011513054 0.22369105 -0.023217367 -0.044952087 -0.067166485 -0.02424479 -0.109847724 0.011484856 0.039379865 -0.14315638 -0.15893066 0.08917158 0.11867854 0.13841344 0.041438833 -0.06343294 0.12893721 -0.063042134 0.19388235 0.027486622 -0.12697102 -0.2982872 0.031455528 0.05021506 -0.06140297 -0.015850162 0.051706675 0.16657825 0.0030476376 0.11319723 0.032368224 0.0012365854 0.052735593 -0.16734706 -0.12398517 0.04417723 -0.014911915 0.087366186 -0.1871309 0.034099154 0.14797767 0.07367632 0.0917091 0.059145156 0.040118515 0.06130872 0.010601051 0.14164829 -0.104728825 -0.089204885 0.13839465 0.15360057 -0.08050042 0.10026436 0.031205066 0.01508815 -0.025295846 0.15898445 0.10122674 -0.09337022 -0.027693916 0.16075279 -0.018981306 -0.068747975 -0.06649079 0.085499756 -0.120321676 0.03611202 -0.04320928 0.0027941046 0.09300158 0.09529624 -0.08136538 0.023591826 0.15869379 0.0073347636 0.14673144 0.10827091 -0.10969711 0.028007878 0.1201653 -0.07249391 0.051278774 0.07995757 0.034056325 0.11998547 0.094598025 -0.23352288 -0.37667546 -0.06314224 -0.07920217 -0.13370682 0.009257909 0.0947316 0.11607239 0.14951225 -0.15546137 0.023020457 -0.15031552 0.037023317 -0.06422973 -0.012102529 -0.00041814015 0.065072 0.123792894 -0.009142401 0.00734624 -0.034195233 0.09674756 0.005577478 0.118530296 -0.017077059 -0.02424259 0.025429327 0.08664453 0.080221 -0.09246085 -0.09132456 0.052095056
1 0.014056837 0.021775816 0.1998116 -0.033772316 0.031238556 -0.06904461 0.08978505 -0.048392855 -0.14491846 -0.010845718 0.21618173 -0.089692175 -0.12108124 -0.17624402 0.0026940722 -0.17560712 -0.030518439 -0.0010201005 -0.07082159 -0.06967678 0.0044977744 0.05498579 0.06698005 0.06573722 -0.17171949 0.21400398 -0.03787406 0.13454747 0.073729336 -0.029553406 -0.35049647 0.16010694 -0.1476866 -0.04134651 0.021284483 -0.0059027136 0.17805588 0.20469087 0.16866589 -0.066349216 0.12597147 0.107572295 -0.16971691 0.046424977 0.10583338 0.08025052 0.00094248966 -0.20760262 -0.14334098 -0.0051155663 0.16081223 -0.07434555 0.13494569 0.08748122 0.1606216 -0.13794467 0.12887104 -0.11132112 -0.09114728 -0.12883186 0.14931591 -0.16512606 0.18880776 0.0665899 -0.09345482 -0.14226593 0.0074749202 0.1437677 -0.064039275 -0.19121554 0.05132193 0.015729189 -0.11113943 -0.034013446 -0.11686907 0.12991032 0.019784972 -0.051051866 -0.065605946 0.055235185 -0.040376607 -0.008421536 0.057403415 0.0041583423 0.019964006 -0.060574815 0.18317659 0.00075387734 0.16518591 0.10809488 -0.08036061 0.0024116556 -0.03423414 0.0026419978 0.030144801 -0.036748726 -0.12684876 -0.10308998 0.11115011 -0.08867534 -0.030597584 -0.019459473 0.068958454 0.0017939514 0.076333284 -0.08572078 0.018920705 -0.075979 0.05597274 -0.04689861 0.053874347 -0.014893213 0.05928049 -0.0866565 -0.0009992947 0.07011271 0.054767575 0.1698228 0.056643773 0.10310037 0.10795658 0.03135231 0.020992981 0.06688671 -0.07385465 -0.1682549 -0.015399328 0.027194183
33 0.044964932 -0.14207096 0.029606532 -0.040766057 0.0115424935 -0.105436526 -0.0027518559 0.0152231855 0.063351944 -0.010689813 0.22356783 -0.048666734 -0.020322157 -0.05486692 0.012909674 -0.061305597 0.020484192 0.048339173 -0.14947614 -0.059991885 0.087111086 0.13599397 0.10195652 -0.041727558 -0.0637622 0.0632936 -0.093554765 0.08548558 0.0054865903 -0.085391596 -0.25397715 -0.046672728 0.0679195 -0.05838199 -0.0057812445 0.099799916 0.14901146 -0.032461435 0.09312398 0.04684089 -0.0119301565 0.04359956 -0.07787327 -0.14085867 0.009651715 0.0127031095 0.06245808 -0.20471999 0.049758397 0.10679121 0.07856455 0.16660762 0.11637508 0.033005096 0.09381425 0.050847683 0.17818305 -0.019696467 -0.052089177 0.07328694 0.09575832 -0.10386696 0.06620101 0.06619448 0.054602522 -0.0005399137 0.178929 0.08320442 -0.11835038 0.020571616 0.12745388 -0.009715061 -0.054407217 -0.0052336254 0.10874687 -0.16462941 0.014139782 -0.02201513 -0.020860724 0.08771396 0.18134823 -0.09362378 0.023079 0.20780684 0.07616573 0.153468 0.13912597 -0.092414 0.039435767 0.14687817 -0.087696105 0.025248943 0.010038295 0.02539338 0.15255018 0.124383084 -0.2433511 -0.35031238 -0.06396625 -0.1473193 -0.09155564 -0.03461925 0.13397254 0.12252719 0.16197708 -0.123551026 0.04564064 -0.1243681 0.03497357 -0.0956017 0.022629976 0.108432405 0.04440053 0.1416284 0.0041634133 0.03475483 -0.05716705 0.07301236 0.056263283 0.20335475 -0.0031053268 0.00092777575 0.060689 0.10976174 0.15855224 -0.16801651 -0.06624919 0.065633826
3 0.017184924 -0.0055241007 0.1858666 -0.04054912 0.0110009825 -0.08561786 0.023483511 -0.042473137 -0.105174825 -0.029172285 0.16729526 -0.07255456 -0.107479565 -0.13456576 -0.024326641 -0.1499595 -0.02937495 0.005506796 -0.08075143 -0.09210503 0.04539585 0.04718333 0.09071484 0.0720565 -0.11794397 0.18140586 -0.040499758 0.16204888 0.07789273 -0.08016045 -0.30699536 0.1420226 -0.09867542 -0.051968534 0.024504082 -0.013272646 0.13537017 0.12516107 0.11402157 -0.0042817304 0.057712577 0.06539776 -0.1418214 0.008054955 0.077811584 0.03372361 0.064098336 -0.16636886 -0.07633835 0.061784215 0.11760619 -0.021864954 0.08755259 0.07345377 0.09580184 -0.06786583 0.13239823 -0.11291764 -0.10265569 -0.027893513 0.17230478 -0.12233025 0.15829995 0.027860815 -0.03678278 -0.09412495 0.07652841 0.118016966 -0.034608684 -0.10958254 0.090305835 -0.016444905 -0.10439526 -0.05748976 -0.024473002 0.03567367 0.00882121 -0.054066777 -0.0049032974 0.07391421 0.015515573 -0.07698692 0.07004602 0.062235016 0.019480657 0.07004738 0.11853262 -0.050360244 0.08974933 0.10826487 -0.077814415 0.048062615 0.052010547 0.04174087 0.054467075 0.022314802 -0.16082028 -0.23815225 0.02592542 -0.078695394 -0.114117794 0.019364683 0.055683747 0.065249495 0.11122525 -0.1306333 0.027951669 -0.1727753 0.023851423 -0.06724547 0.019396443 -0.061782613 0.07789109 0.00078447344 0.023829885 0.0025195226 0.020785855 0.15133828 0.038903248 0.08756138 0.04250546 0.01348126 0.0131063545 0.06497794 -0.024465492 -0.12200612 -0.06549131 0.02903523
2 0.034740537 -0.030823603 0.3016309 -0.08110588 0.042767856 -0.13269532 0.059086043 -0.08374199 -0.19596781 -0.024915067 0.28022394 -0.10869624 -0.2030568 -0.24453336 -0.0139804175 -0.274867 -0.039040595 -2.9304432e-05 -0.060047857 -0.09885185 0.019776843 -0.009265804 0.10440777 0.119783506 -0.087243535 0.16801946 -0.0060436833 0.18185468 0.08042288 -0.101579756 -0.23700052 0.16885668 -0.09128717 -0.04978879 0.0064024287 -0.031767808 0.16260916 0.16841412 0.124710366 -0.015833264 0.118756205 0.066074826 -0.15650983 0.036378164 0.08072539 0.03560836 0.05973633 -0.1433306 -0.07616607 0.06863863 0.13228951 -0.052910794 0.08570136 0.062948704 0.074339494 -0.060810167 0.09967061 -0.15815589 -0.075119555 -0.016375287 0.18481039 -0.09574481 0.19056061 0.056180142 -0.114840835 -0.094571665 0.04636564 0.10327283 -0.02128484 -0.1215768 0.08365879 0.005051052 -0.052836306 -0.05908326 -0.08425391 0.11934722 -0.0009832372 -0.057542395 0.012713582 0.066798866 -0.031113267 -0.04612713 0.058917694 -0.017996933 -0.024715813 0.0044948314 0.14979777 -0.008870625 0.11654187 0.07422188 -0.052527543 0.03258539 0.067685984 0.0014288618 -0.0068736086 -0.021772487 -0.15920317 -0.19818696 0.06128309 -0.054600954 -0.08046574 0.07301181 0.039952327 0.049686614 0.122344 -0.11552889 0.04170373 -0.16607817 0.04745368 -0.035431705 0.008761776 -0.07962416 0.08002442 -0.07908434 0.0030257758 -0.024722995 0.06111949 0.22088552 0.05367975 0.12926246 0.08325784 0.017101275 -0.005634473 0.071733154 -0.07307852 -0.11823126 -0.08046884 0.04060986
4 0.058485307 -0.03212897 0.34006825 -0.07992394 0.05378905 -0.10310015 0.074909315 -0.105602376 -0.2397541 -0.026399009 0.31350264 -0.15663753 -0.25566465 -0.29448223 -0.024586651 -0.34095788 -0.05232427 -0.0070130946 -0.07559976 -0.112079345 -0.003582349 -0.024908112 0.0915751 0.09358583 -0.090932846 0.1292259 -0.018985787 0.13476807 0.06516749 -0.07732846 -0.24200864 0.20043442 -0.09561048 -0.049723804 0.023569917 -0.05623573 0.17046864 0.16764836 0.106601685 0.012182846 0.15875372 0.030892804 -0.15206613 0.05923896 0.03851688 0.044489942 0.037101064 -0.1516329 -0.10564463 0.018412732 0.122877486 -0.07357853 0.07885897 0.077943146 0.070544645 -0.07133176 0.07107892 -0.16733465 -0.06689728 -0.013361295 0.18506405 -0.11383367 0.2073363 0.09948119 -0.16634811 -0.08817276 0.016860122 0.10618884 -0.066558644 -0.15383066 0.054248758 0.014126047 -0.03587883 -0.028256122 -0.07797305 0.11535178 -0.0268071 -0.09491302 0.017493863 0.0004636266 -0.012577378 -0.023716317 0.060011975 -0.048216317 -0.031359043 0.015814211 0.14390042 0.05199466 0.12466306 0.08311389 -0.049395923 0.06388389 0.08718447 0.0041712797 -0.015048101 -0.008193349 -0.113587596 -0.14716908 0.03964256 -0.042017803 -0.017226039 0.08368194 0.057088528 0.032543812 0.103624366 -0.11885764 0.045204893 -0.12675126 0.07229043 -0.021650886 -0.0028919894 -0.064171545 0.101025924 -0.06617973 0.014206872 0.010779022 0.07601383 0.24186142 0.06638025 0.16139992 0.11834937 0.012665981 0.011602972 0.103175655 -0.05138182 -0.13749678 -0.07579784 0.055543106
32 -0.0047338363 0.035728972 0.034233186 -0.045343462 0.036370948 -0.056674432 -0.031405088 0.002151538 0.09726056 -0.040934 0.055697314 -0.0092996545 0.03411378 -0.0003835698 -0.017548384 0.080972 0.015415841 -0.018539317 -0.050458618 0.025626391 0.092524596 0.07450831 0.12844226 0.0082194805 -0.08271537 0.19199833 -0.055147473 0.11167171 0.08272685 -0.099153064 -0.24320446 0.024743391 -0.09075508 -0.03258814 0.022275414 0.061641864 0.057849087 0.052194037 0.086518615 -0.03852877 -0.08243929 0.0750048 -0.053879555 -0.11340941 0.113675125 0.0076589882 0.10907889 -0.13438281 -0.014667298 0.16748773 0.11055695 0.117668875 0.12826177 0.053341232 0.08049451 0.020023385 0.2540705 0.05063228 -0.10752551 -0.05763411 0.065104984 -0.09346664 0.1012853 -0.046765953 0.13606954 -0.032485545 0.2187001 0.059989046 0.023282394 0.07305473 0.0997172 -0.030367956 -0.08576224 -0.042884395 0.016834507 -0.033074446 0.046319928 0.049375314 -0.04921971 0.1560993 0.11017451 -0.13974686 0.04025583 0.19152884 0.099263616 0.095780775 0.10166088 -0.15832782 0.008063374 0.10967494 -0.10917591 -0.058043126 -0.025674488 -0.010247068 0.111746505 0.007217224 -0.29285508 -0.3781973 0.040436745 -0.21214367 -0.23591687 -0.06201982 0.048645236 0.20580608 0.24998873 -0.17717788 0.055338707 -0.28347915 -0.020492712 -0.1820764 0.0406731 -0.020527706 0.028488018 0.015039086 0.017113442 -0.039248455 -0.054804273 0.113710485 0.084108666 0.15278907 0.0019320713 0.03391664 0.05127739 0.0532428 0.060845274 -0.14530256 -0.11126635 0.022919193
14 0.03029414 -0.021945491 0.23024035 -0.06373785 0.018997883 -0.09995463 0.022690628 -0.048963234 -0.15082951 -0.034887724 0.20037602 -0.0752635 -0.16078526 -0.19631326 -0.025644835 -0.20640936 -0.038675375 -0.0033416275 -0.074121535 -0.08207888 0.037170336 0.00046811107 0.094610296 0.06901163 -0.082939945 0.12676476 -0.030639237 0.16537797 0.094167136 -0.11035843 -0.27188367 0.16401802 -0.080512755 -0.07736763 0.028164899 -0.011451918 0.15524544 0.14925821 0.101208314 0.008367753 0.10000752 0.039401554 -0.13079987 0.01621772 0.07030845 0.05516617 0.08089326 -0.16482085 -0.06181301 0.082581826 0.11549715 0.006592186 0.085600406 0.06863156 0.091312364 -0.04221439 0.12619045 -0.11484222 -0.07824423 -0.021887412 0.17649557 -0.110852055 0.17872548 0.05183949 -0.076386094 -0.062859796 0.090180285 0.11425998 -0.0494279 -0.096603625 0.08896691 -0.0049463557 -0.058150586 -0.034569126 -0.020408764 0.06516302 -0.019162036 -0.08500129 0.04053724 0.053869132 0.037411626 -0.079764344 0.059791878 0.026857728 0.022747569 0.09032896 0.13153228 -0.023238137 0.10196536 0.08558822 -0.07965978 0.064520076 0.113085225 0.03727406 0.008642942 0.040840447 -0.14341119 -0.21910034 0.040969696 -0.07632028 -0.10749912 0.08326296 0.060985617 0.06383371 0.119815156 -0.1287334 0.0538027 -0.17891547 0.025084278 -0.06299937 -0.00043759288 -0.054246023 0.074089386 -0.035990376 0.050152883 -0.030650385 0.070194684 0.21320504 0.05432612 0.14859459 0.081685714 0.022353185 0.019165978 0.064009026 -0.030599542 -0.13127856 -0.05846634 0.038230456
24 0.018057665 -0.06765327 0.018632228 -0.054101534 -0.016538601 -0.10944122 -0.06969078 0.017058916 0.15212336 -0.02611596 0.09336344 0.026345015 0.09593621 0.03658652 -0.0055827843 0.04262519 -0.031727485 0.02342487 -0.11218638 -0.027924286 0.10042644 0.08641151 0.12309314 -0.007826136 -0.09102152 0.163511 -0.078664646 0.1567138 0.07287933 -0.107486896 -0.29191038 0.01756642 -0.0025930093 -0.06117163 0.02790224 0.092681155 0.08299184 0.029498 0.0702714 0.017038701 -0.079967625 0.10888949 -0.10207563 -0.13158144 0.111361526 -0.014409599 0.10866896 -0.18300359 0.050884135 0.21623182 0.14114119 0.183409 0.1103281 -0.0048865406 0.04344033 0.088367485 0.25651938 0.014845469 -0.08652776 0.04051211 0.08007742 -0.091991946 0.08335797 -0.0045539793 0.12634604 -0.009110689 0.23498331 0.030976063 0.012784577 0.057727594 0.11298676 -0.03352716 -0.07633929 -0.059688285 0.10266097 -0.12800838 0.09869402 0.034232188 0.007961431 0.16826856 0.14008161 -0.15293929 0.06041038 0.22146352 0.06364751 0.12891945 0.13040261 -0.16081671 0.024019746 0.11467917 -0.10241466 -0.012548328 0.014932498 0.018945264 0.102740005 0.07912788 -0.2828305 -0.43295684 -0.02806826 -0.17065711 -0.23886076 -0.030110702 0.09246452 0.17993787 0.19995144 -0.13665284 0.03914131 -0.2717221 -0.018816343 -0.082119174 0.036305144 0.02764477 0.03753218 0.099817164 -0.028435623 -0.03896365 -0.07977829 0.067850456 0.078278266 0.19505112 -0.026372584 -0.0044240663 0.048307743 0.06327975 0.101130016 -0.11700891 -0.14811485 0.017295673
6 0.035085365 0.09730998 0.08437231 0.003674094 0.0816051 0.012051944 0.18929277 -0.038343113 -0.107246496 0.03915038 0.2613093 -0.19585437 -0.08006437 -0.12740135 0.07976864 -0.099328406 -0.005099131 0.0055003385 -0.0968961 0.06489573 -0.014679705 0.1353817 -0.005301841 0.02498561 -0.25587022 0.21868147 -0.09816523 -0.07053241 0.026022594 0.12589881 -0.4310959 0.091664344 -0.17236277 -0.015558333 0.021319943 0.027885808 0.19165207 0.22515106 0.20442522 -0.13973106 0.08328823 0.14920875 -0.113131136 0.039005972 0.066805705 0.11451469 -0.17859538 -0.23948759 -0.1736882 -0.09506053 0.18240263 -0.07907254 0.2604687 0.09714392 0.21060549 -0.13278775 0.16682523 -0.008750692 -0.09173153 -0.24089034 0.011266912 -0.21174715 0.1301774 0.08197511 -0.06216651 -0.17449525 -0.02867803 0.1252392 -0.124025345 -0.23005165 -0.01044865 0.07070027 -0.1566667 0.029487498 -0.18594998 0.124850094 0.01931652 0.020336093 -0.2053757 0.06564655 -0.0016108152 0.017176084 0.044055156 0.077130884 0.060274377 -0.19266483 0.26445314 0.033013966 0.23328029 0.16434795 -0.090907805 -0.095374584 -0.24003164 -0.043451644 0.14288692 -0.08273361 -0.17292379 0.016444365 0.14326778 -0.1878235 0.06307118 -0.17988339 0.08873732 -0.0069584264 0.079708725 -0.038372617 0.059055377 0.045005936 0.05864364 -0.09700388 0.14909837 0.10028134 0.044535313 -0.10369421 -0.03453452 0.17768879 -0.008578939 0.1382223 0.11576435 0.18454841 0.17965582 0.03231572 0.067316085 0.115054786 -0.0144848665 -0.27538207 0.0040141745 0.041922443
7 0.008259777 0.086903125 0.09016156 0.018258259 0.05561764 -0.0036569575 0.17391269 -0.043684795 -0.11316937 0.03860101 0.23312965 -0.16396898 -0.060549714 -0.11947864 0.06997436 -0.09752945 0.003419374 0.018123375 -0.102978416 0.03194242 -0.019537812 0.15940158 0.007158947 0.042777795 -0.27439582 0.23856194 -0.106748685 -0.018568572 0.016629139 0.08662171 -0.49549788 0.118868336 -0.17828502 -0.027983183 0.039926052 0.033906925 0.20196617 0.22939833 0.20831622 -0.13658856 0.09533894 0.15684992 -0.14189717 0.055908784 0.08695283 0.13270755 -0.16372328 -0.24803828 -0.16927737 -0.062345337 0.18392797 -0.06287501 0.25467068 0.08276763 0.21384327 -0.1472821 0.13974094 -0.0141057335 -0.09386154 -0.2040177 0.038400833 -0.20668942 0.15591788 0.08928049 -0.07030053 -0.18804711 -0.03611565 0.13482842 -0.107812546 -0.2385971 0.008345958 0.05925789 -0.16366282 -0.00021702514 -0.17255424 0.12145018 0.030108532 -0.00037799642 -0.19784836 0.07159845 -0.0017865564 0.033642404 0.053122774 0.082943335 0.05361631 -0.17411526 0.24743488 0.025580926 0.20911786 0.13449791 -0.08063495 -0.08170403 -0.20660762 -0.021635503 0.13321586 -0.05701374 -0.1521975 0.014579038 0.13597244 -0.16597213 0.05187582 -0.16892423 0.09572662 0.00085674156 0.05786179 -0.03180273 0.05429766 0.06207269 0.0609382 -0.08557142 0.12726542 0.079868585 0.04655789 -0.09472754 -0.05512214 0.14757948 0.016405215 0.11661239 0.075309694 0.15581575 0.15910031 0.041659907 0.05717109 0.08508902 -0.019640567 -0.23003031 0.020933164 0.041218627
30 0.048071712 -0.13124122 0.09634608 -0.072815284 -0.060911916 -0.16631983 -0.047329396 0.020536795 0.09335321 -0.029415594 0.19080761 -0.0007602343 0.046107367 -0.021402515 -0.001855023 -0.05843787 -0.05197686 0.049571093 -0.11922066 -0.113373935 0.1071062 0.08804061 0.104275495 -0.002716376 -0.046421707 0.102563426 -0.068034425 0.20801885 0.091529824 -0.12839791 -0.26408443 0.019633455 0.07040362 -0.096495636 0.018700005 0.103312515 0.13652208 0.017159428 0.068988994 0.049551196 -0.046866525 0.0963148 -0.11950866 -0.12904295 0.117390655 -0.04082517 0.13039611 -0.21328418 0.105554774 0.21837606 0.11214724 0.18191415 0.033399146 -0.035958532 0.039317656 0.09826665 0.20835918 -0.037843622 -0.07099369 0.10229401 0.117201194 -0.08277076 0.054119155 0.00040717277 0.10493273 0.0043455153 0.21410441 0.032240726 -0.005935802 0.028090673 0.15745313 -0.03243676 -0.090291105 -0.05370966 0.15253682 -0.17518143 0.10255241 -0.0013116216 0.08395662 0.16288927 0.11850326 -0.15109178 0.062928624 0.19043955 0.044205792 0.18477042 0.12844682 -0.1616479 0.047699887 0.13754335 -0.1059937 0.06261083 0.079870336 0.059269026 0.09754917 0.14719819 -0.24181685 -0.41522664 -0.058810007 -0.083602354 -0.21347596 0.04357716 0.08972066 0.10782589 0.13111545 -0.09968442 0.009106068 -0.23080984 -0.03755227 -0.019657105 0.030187618 0.030340252 0.03767792 0.15170477 -0.012371545 -0.034946892 -0.052374903 0.080136545 0.04454722 0.19002609 -0.026460575 -0.033071715 0.011693222 0.058598775 0.1015075 -0.11133516 -0.15060349 0.02993399
9 0.03860625 -0.045090374 0.17022544 -0.04847921 0.035931624 -0.11366775 0.033894725 -0.033243388 -0.024600135 -0.013926706 0.25906426 -0.10020316 -0.088160776 -0.16212353 -0.011274695 -0.13692112 0.006316361 0.027446592 -0.09530575 -0.052043002 0.05627121 0.098217025 0.11387111 0.025184516 -0.10330186 0.15613776 -0.065462574 0.10961768 0.05512271 -0.066378646 -0.28525403 0.07082738 -0.053464286 -0.04426278 0.0027830272 0.037394248 0.15185577 0.06426958 0.13092378 -0.009206873 0.011144818 0.06704751 -0.11228906 -0.08114762 0.06615668 0.025029626 0.0427867 -0.18519023 -0.041752886 0.09715731 0.10267427 0.05197662 0.114210136 0.071910955 0.08474999 -0.014042747 0.15230179 -0.04386543 -0.09172554 0.003912371 0.104548395 -0.104485735 0.12797856 0.03994304 0.0118153505 -0.059913572 0.11840699 0.08263956 -0.048460975 -0.028546471 0.087169744 0.00580785 -0.076334365 -0.021089468 0.0018118905 -0.039579626 0.012454174 -0.0006828549 -0.041745055 0.09056711 0.06355477 -0.06594755 0.03920611 0.11046988 0.048555475 0.06543944 0.12510987 -0.059291255 0.056329764 0.120419055 -0.07469957 -0.0062520555 -0.0071640643 0.0018076679 0.097021386 0.024095707 -0.17956425 -0.24367735 0.01738727 -0.10923243 -0.09342975 -0.024916206 0.063037656 0.097838126 0.13356923 -0.12414314 0.035245743 -0.12755659 0.023030806 -0.0865441 0.024467412 -0.00054830854 0.045922685 0.046687867 -0.0046149413 0.010564111 -0.010628441 0.109122515 0.05111437 0.13682906 0.027559657 -0.00046535317 0.03538632 0.07235897 0.05417295 -0.13675913 -0.071735784 0.03932382
8 0.041449137 -0.015344008 0.24295336 -0.053849462 0.042481054 -0.09183631 0.0659314 -0.06431301 -0.16890249 -0.019198954 0.24503127 -0.113380514 -0.17363727 -0.23274882 0.00062815414 -0.23249422 -0.048120666 -0.017690444 -0.052469477 -0.07981391 0.012485077 -0.010110948 0.060285933 0.072551236 -0.08790973 0.10898025 -0.007334595 0.14350529 0.088301376 -0.0642994 -0.2216714 0.14973915 -0.07914314 -0.060182177 0.010346382 -0.01744237 0.1417234 0.15331863 0.116298564 -0.019540586 0.11465539 0.034367297 -0.12025905 0.032405026 0.055741012 0.04881862 0.0451013 -0.14192544 -0.06800993 0.050149754 0.12802738 -0.04059502 0.083666034 0.067370474 0.09012068 -0.06241275 0.10664319 -0.1185523 -0.08684854 -0.03299397 0.14802888 -0.1082193 0.17464516 0.060975518 -0.09660842 -0.07038686 0.054409694 0.11277008 -0.054741845 -0.11381505 0.08262137 0.017049799 -0.062230803 -0.016523084 -0.04530519 0.079205625 -0.014444083 -0.08493082 0.036587108 0.052899074 0.019293461 -0.06999507 0.046861097 0.008584518 0.016851878 0.04614587 0.15677993 -0.011651973 0.13504533 0.084397316 -0.06610683 0.051952146 0.09191156 0.024029275 0.017674724 0.011255312 -0.15235412 -0.2061416 0.05770924 -0.081123345 -0.0797917 0.06716758 0.059001435 0.04668512 0.106782496 -0.12490791 0.05411431 -0.15094672 0.045413397 -0.043359168 0.017206393 -0.04175644 0.081427075 -0.03590908 0.03719248 -0.0017770657 0.06808867 0.2491721 0.075885296 0.1786676 0.1087485 0.02300397 0.028534062 0.0985242 -0.030205777 -0.16867433 -0.061141424 0.040791016
28 0.03517907 0.010753234 0.13727476 -0.057683356 0.018568857 -0.13188009 -0.031032467 -0.019520743 0.058183316 -0.043203037 0.102656804 -0.02411703 0.010558872 -0.05999336 -0.008781482 0.013792271 -0.046446808 -0.029606368 -0.06435023 0.0027608182 0.10902359 0.043343708 0.1271129 0.041831717 -0.07111863 0.17546621 -0.036677554 0.19058838 0.109141245 -0.13832527 -0.23338412 0.04735723 -0.03485335 -0.06372726 0.019428546 0.06475492 0.069677725 0.06288818 0.07872111 0.0017419716 -0.071248196 0.07731538 -0.06789948 -0.08742864 0.108989395 0.015445023 0.14511731 -0.124209 0.008358846 0.20631798 0.14068972 0.14807586 0.09037645 0.0014805272 0.033774447 0.059840873 0.26185554 0.013308708 -0.10359659 -0.01740353 0.076143675 -0.06782223 0.1123506 -0.02599523 0.10935583 -0.015457878 0.21466981 0.01947953 0.06471727 0.09236285 0.102566466 -0.009108129 -0.06542239 -0.04230806 0.050363414 -0.033844985 0.04636664 0.032656178 0.03234204 0.1463295 0.10226602 -0.15462638 0.06549792 0.14079444 0.071863815 0.11782144 0.10109865 -0.15592848 0.016013846 0.08646604 -0.09822406 -0.017744344 0.05248987 0.016160836 0.048176125 0.023995748 -0.25650588 -0.38372648 0.040005818 -0.16457462 -0.24192937 0.021036074 0.038460396 0.17064819 0.19600634 -0.14837629 0.057091907 -0.28087273 -0.026657587 -0.1001715 0.016280722 -0.038387716 0.024137016 0.014364163 0.021056289 -0.08707009 -0.027650924 0.15661554 0.08962176 0.19203149 0.013804757 0.011983993 0.031184932 0.05741695 0.05440142 -0.12763242 -0.14786619 0.015958486
5 0.025013506 0.107395895 0.08543925 0.0009053158 0.06715732 -0.00394804 0.1757519 -0.037069935 -0.09188729 0.05195334 0.24213998 -0.188654 -0.06343408 -0.11156677 0.05848118 -0.08047491 -0.0059138094 -0.00021102955 -0.08745298 0.06336696 -0.0013562114 0.13721548 -0.006586105 0.03681819 -0.25861195 0.22443368 -0.096303456 -0.05739924 0.03270163 0.1202383 -0.427398 0.0911332 -0.19488837 -0.014250086 0.02537033 0.03025954 0.1768874 0.22700526 0.21311471 -0.14178644 0.06626124 0.15397947 -0.1221318 0.038644806 0.07616554 0.12776497 -0.17721139 -0.22579545 -0.18731362 -0.07830694 0.17223653 -0.06924715 0.25981367 0.08845968 0.20669706 -0.1409906 0.17411502 -0.0011224073 -0.100822546 -0.24067973 0.020006366 -0.20821233 0.13219726 0.07118324 -0.03009212 -0.18925853 -0.023371354 0.12569205 -0.10796754 -0.22896382 -0.005812053 0.06420601 -0.17778625 0.013072175 -0.18154018 0.098356254 0.015173471 0.033338085 -0.2059199 0.09297625 -0.010399086 0.0020204864 0.04786877 0.095784895 0.07236476 -0.1806637 0.2565939 0.004854914 0.22891201 0.16120565 -0.090163805 -0.105417244 -0.23498696 -0.027337585 0.13887449 -0.0934648 -0.18917063 -0.027458288 0.13268757 -0.18611765 0.021703368 -0.17660396 0.07228712 0.0105003975 0.08021062 -0.052247766 0.048603788 0.016064527 0.048929792 -0.103295945 0.13504982 0.068788715 0.049459394 -0.10478536 -0.04167643 0.17107598 -0.00464182 0.148214 0.10932467 0.1588496 0.163226 0.030391822 0.052832436 0.11947233 -0.029731289 -0.26849535 -0.00047691658 0.03189016
11 0.035744473 0.067152336 0.1498526 -0.016776115 0.07356896 -0.04884986 0.16800632 -0.023625348 -0.12772004 0.019781461 0.2707842 -0.18890907 -0.106004514 -0.15723804 0.07952433 -0.1573953 -0.009624161 0.018670324 -0.105126545 0.03419223 -0.00045183775 0.12135899 0.0017644627 0.0467788 -0.27088133 0.22241123 -0.07250607 0.011079052 0.033827227 0.087142736 -0.4710146 0.10969055 -0.17073132 -0.019339463 0.013847033 0.024409084 0.17476222 0.22992152 0.20476343 -0.12635575 0.08994917 0.15679432 -0.13920937 0.07011967 0.066396154 0.13819285 -0.1280988 -0.22868624 -0.1757609 -0.08712696 0.16686435 -0.072608404 0.25721243 0.10200797 0.2348443 -0.1418962 0.14426818 -0.021017686 -0.09826517 -0.22022943 0.054314207 -0.19416384 0.157966 0.09171681 -0.056231458 -0.17854212 -0.046151582 0.13164511 -0.10857701 -0.22942233 0.015396908 0.05970812 -0.16342562 -0.0021779048 -0.16416168 0.12096026 0.009538828 -0.007771065 -0.18411352 0.064085804 0.0042131133 0.013033946 0.06624531 0.054666135 0.064427026 -0.17083862 0.2423877 0.0060951887 0.20875709 0.12010911 -0.08090705 -0.074714154 -0.18952149 -0.0076536913 0.11409479 -0.06137939 -0.13406037 0.026453879 0.13301893 -0.1507077 0.046413966 -0.14371595 0.08028307 -0.019621443 0.027913684 -0.012944249 0.028405456 0.043481026 0.06062741 -0.06483031 0.101870924 0.06679658 0.040191818 -0.09576212 -0.03524837 0.15314312 0.024706563 0.12339193 0.09196748 0.13750525 0.15111849 0.041089274 0.05780261 0.10103677 -0.03797323 -0.23603359 0.046035033 0.032232445
29 0.027774433 0.005226254 0.20198296 -0.061766107 0.022860605 -0.12966795 0.004707664 -0.0403286 -0.014295994 -0.033436578 0.19210476 -0.056185316 -0.076914914 -0.13713227 -0.030519366 -0.09293577 -0.017970977 -0.0068611978 -0.057628572 -0.028290803 0.06435047 0.05826026 0.12322697 0.038874757 -0.07589892 0.17192444 -0.04594201 0.16559152 0.09553939 -0.10342586 -0.24515714 0.10516349 -0.09601958 -0.061072793 0.01939442 0.0066271895 0.11096527 0.0839994 0.10804687 0.007155317 -0.0064471276 0.063218586 -0.08784254 -0.06583376 0.0994798 0.03846569 0.0914391 -0.1451068 -0.041590672 0.15485592 0.11433951 0.08036169 0.095912546 0.046881396 0.052376635 0.0069830986 0.18798333 -0.03236804 -0.09288824 -0.010652224 0.124136 -0.098344356 0.13563494 0.0132314535 0.048462965 -0.061980102 0.15821588 0.05651271 0.015712129 0.029859252 0.08259871 -0.010291888 -0.07113512 -0.04567937 0.018227592 -0.028746093 0.012307083 0.0137910275 0.0033521508 0.118590124 0.073112145 -0.120791264 0.05127661 0.120778754 0.058563586 0.11093119 0.09985805 -0.09314157 0.034464374 0.10795744 -0.09562847 -0.008259532 0.0392451 0.014072108 0.045017254 0.012288657 -0.18093781 -0.30131176 0.01602035 -0.111164026 -0.18028565 0.021971961 0.04331096 0.15357187 0.15966406 -0.14748707 0.059383146 -0.23902413 -0.012830977 -0.09897284 0.014079262 -0.058705516 0.036936775 0.0076606926 0.01558053 -0.052506372 -0.0046509686 0.13224988 0.054872356 0.10639637 0.00517423 0.017377483 0.023478054 0.054935653 0.019680738 -0.1053288 -0.10658749 0.009584037
31 0.030485963 -0.1294488 0.10680618 -0.061390024 0.003499266 -0.08067876 -0.0032419045 -0.030390667 -0.03591847 -0.024775468 0.24708214 -0.053142957 -0.08489629 -0.13631123 0.0041509466 -0.16879909 -0.008388286 0.037039183 -0.108698405 -0.13180518 0.024123177 0.069250405 0.08036249 0.007952321 -0.053746633 0.074185856 -0.038494848 0.10403374 0.03281113 -0.08179323 -0.23530789 0.03775121 0.022956848 -0.06195348 -0.0049503404 0.05090658 0.15557459 0.048039056 0.093981355 0.011340137 0.057663664 0.024332184 -0.12652202 -0.06871216 0.041497543 -0.01586047 0.06429963 -0.19721077 0.026199853 0.089865275 0.09459745 0.06050275 0.0789485 0.063694105 0.08087182 0.00447098 0.12318125 -0.09589022 -0.068532184 0.078214064 0.14083722 -0.099676706 0.10742468 0.05825803 -0.033671577 -0.011942436 0.12784718 0.11775844 -0.122044906 -0.08490866 0.13973853 -0.019891333 -0.055664495 -0.011380087 0.05404844 -0.05694817 0.018867712 -0.06837793 0.030046992 0.07552433 0.102016866 -0.0804721 0.032021224 0.12668617 0.013459677 0.123900704 0.15014306 -0.05806185 0.0883421 0.122522004 -0.08825179 0.082339436 0.07831419 0.027303096 0.11159335 0.11147739 -0.2008438 -0.2897645 -0.028120479 -0.1068766 -0.08170908 0.0072663045 0.11263974 0.07925391 0.1331588 -0.13084126 0.0358519 -0.13515602 0.040115114 -0.05300565 0.029537296 0.052433204 0.08203412 0.11499312 0.007172912 0.02820769 -0.022947818 0.13496377 0.056785557 0.21049152 0.046121474 -0.0049948194 0.050666887 0.10246738 0.07933251 -0.17948778 -0.06771306 0.059116196
26 -0.011792977 0.068097904 -0.03878544 -0.023467135 0.013238802 -0.04060204 -0.049602933 0.028371481 0.16007924 -0.035790063 -0.06726259 0.044388976 0.14606826 0.09603021 -0.006330668 0.18479815 0.0007751763 -0.026667425 -0.06866747 0.019912085 0.12691993 0.10568902 0.14930055 0.021474458 -0.09939447 0.24233158 -0.06195004 0.1672582 0.114498444 -0.10222755 -0.29716304 0.031304047 -0.08559144 -0.04905347 0.011524106 0.05533181 0.0555785 0.07113295 0.09591436 -0.048252467 -0.096978426 0.10582767 -0.076558985 -0.12355695 0.13798581 0.025897004 0.121710226 -0.16442962 0.0069435663 0.20607546 0.13089295 0.15440714 0.13045268 0.032792017 0.06893481 0.037981138 0.3057211 0.06774077 -0.13104858 -0.06479813 0.06714582 -0.10074358 0.09945925 -0.06631493 0.185861 -0.06709345 0.25210044 0.035230096 0.06801246 0.09052536 0.10418533 -0.022633586 -0.1157546 -0.059013657 0.02834363 -0.056212917 0.07902317 0.07653878 -0.055528887 0.19727287 0.117774405 -0.15455921 0.04534181 0.22627749 0.11940434 0.11934682 0.0878671 -0.1995195 -0.0036485698 0.11524412 -0.13738453 -0.07218808 -0.039154254 0.005942774 0.095274925 -0.00553091 -0.30550632 -0.4151803 0.035580825 -0.21931294 -0.2825718 -0.07480626 0.05846953 0.22945645 0.2512609 -0.19485557 0.05840976 -0.32455015 -0.022333456 -0.17788477 0.058070924 -0.032897387 0.018098533 0.02022729 -0.0031449478 -0.04748392 -0.0821775 0.11143957 0.08569431 0.15473188 -0.019693386 0.024433844 0.0582767 0.049308565 0.05294501 -0.14447613 -0.15973864 0.00580482
20 0.054299343 -0.06571636 0.19632088 -0.05867888 0.03789362 -0.10905796 0.05974218 -0.051038142 -0.098123185 -0.022707133 0.27634662 -0.11820225 -0.1355581 -0.17375435 0.015597985 -0.19588472 -0.027403954 0.01718918 -0.09115672 -0.073649265 0.04013643 0.05427732 0.065572865 0.042482313 -0.10105578 0.11756815 -0.037852913 0.11825541 0.040998966 -0.05234519 -0.24853918 0.069051616 -0.017794155 -0.049853917 0.0038472528 0.008411591 0.116137944 0.08189071 0.088660106 0.0054820576 0.056007784 0.052015394 -0.120877154 -0.0063301465 0.036203086 0.02374838 0.035012886 -0.15195245 -0.045216344 0.061522722 0.11829979 0.021463612 0.11048413 0.05267647 0.08421308 -0.031180652 0.13547571 -0.092310935 -0.07678777 0.00037638782 0.13502175 -0.11008933 0.13523889 0.05983912 -0.056061782 -0.06784852 0.07494269 0.103497684 -0.076412834 -0.08406627 0.09488898 0.0025450045 -0.07035179 -0.024081184 -0.0036760697 0.002363244 -0.0023203718 -0.053587116 -0.010681487 0.058786564 0.06838651 -0.07613144 0.053765006 0.085069686 0.026299065 0.048478737 0.16583757 -0.049323484 0.115095705 0.11968042 -0.077525206 0.042081635 0.030941764 0.026024437 0.07844529 0.046125036 -0.16956294 -0.22322758 0.013500031 -0.109493054 -0.06036955 -0.00515201 0.07872584 0.05200095 0.1059033 -0.10633717 0.041157547 -0.114973605 0.042863615 -0.045930818 0.031755004 0.008208491 0.06823674 0.026152866 0.0015299696 0.02308903 0.012215487 0.15071791 0.06390203 0.16840546 0.06154966 0.009311199 0.031510834 0.10536056 0.02534025 -0.1612085 -0.06399364 0.046434414
25 -0.011360458 0.06321586 0.044950116 -0.05380884 0.010472331 -0.07793239 -0.062761426 -0.007883823 0.14628388 -0.033031188 -0.008715911 0.040222686 0.09942613 0.06763034 -0.036626518 0.14340547 -0.0041396953 -0.020238424 -0.061600935 0.0048183394 0.14166233 0.095300555 0.17556252 0.024814636 -0.09563382 0.25323528 -0.07975122 0.17881769 0.13236466 -0.13563089 -0.3095445 0.072447084 -0.102214515 -0.042681962 0.033889454 0.05526988 0.047767565 0.051931683 0.078461625 -0.029238887 -0.12609378 0.098529056 -0.06835653 -0.14548008 0.14455898 0.0010704551 0.12252931 -0.1516143 0.004752384 0.25082862 0.1377766 0.1488612 0.10123329 0.017567614 0.025646942 0.052466232 0.28203243 0.06323811 -0.13211372 -0.03396342 0.073192336 -0.08155431 0.09871128 -0.07940685 0.17976053 -0.054689556 0.25995812 0.028711418 0.09992015 0.120136246 0.098765895 -0.018999608 -0.10630355 -0.08472582 0.041023053 -0.062088314 0.06849571 0.07633404 -0.032488797 0.1979741 0.10543522 -0.1757443 0.05699026 0.22910681 0.10266159 0.11175553 0.069262564 -0.20547895 -0.028474538 0.09603268 -0.11470918 -0.07719348 -0.016535388 -0.003823707 0.09284361 -0.009514871 -0.28669736 -0.4406303 0.01607534 -0.19940388 -0.29599595 -0.030927168 0.029953962 0.2453683 0.24980012 -0.19440994 0.07149142 -0.3393014 -0.037588432 -0.166309 0.028799517 -0.07501535 0.023790233 0.018743273 -0.01296185 -0.08664716 -0.07797236 0.118842386 0.08118588 0.12407517 -0.031711295 0.028042132 0.039930347 0.033506624 0.052253466 -0.078190126 -0.18829575 0.006678437
17 0.034024093 0.13329658 0.0557702 0.018491622 0.10115127 0.043351334 0.19258395 -0.0044561527 -0.10612479 0.027559178 0.15773223 -0.17858352 -0.05675492 -0.07884764 0.103451684 -0.052891675 0.0048204716 -0.026737312 -0.10231754 0.06055076 -0.010433096 0.121901006 -0.024065496 0.044587452 -0.3022894 0.26506224 -0.07467079 -0.041526973 0.03904405 0.1393683 -0.46203226 0.10296222 -0.20255457 0.0070994757 0.007599742 0.00797145 0.1550866 0.24775916 0.2165802 -0.16512395 0.0883754 0.1527292 -0.13366576 0.0910345 0.07612589 0.11394851 -0.16969496 -0.21443439 -0.21906212 -0.1239388 0.17913383 -0.12413453 0.29364157 0.122976474 0.25187635 -0.18656358 0.18455993 -0.0043418817 -0.11701215 -0.28617528 0.024005614 -0.2224202 0.15244032 0.08464805 -0.06678742 -0.22152187 -0.058979623 0.16013943 -0.1355554 -0.2725427 0.009878205 0.07337278 -0.19426478 0.00048321448 -0.21950288 0.1674723 0.008351666 -0.0072951685 -0.23148412 0.06452849 -0.025118925 -0.008177777 0.07324304 0.08105982 0.06654869 -0.22781806 0.28773686 0.019053737 0.27092797 0.17043047 -0.11021818 -0.106408685 -0.26031864 -0.027133357 0.13493006 -0.109979875 -0.1958951 0.0063533555 0.17836909 -0.22160669 0.056401227 -0.20531672 0.0744556 -0.009274198 0.081743225 -0.05507133 0.04783686 0.019974675 0.08879067 -0.09884105 0.14802428 0.08679426 0.0631319 -0.1434448 -0.04721486 0.20680943 -0.006636854 0.18541269 0.14280671 0.1850876 0.20673722 0.037832417 0.086258784 0.15070236 -0.06323691 -0.31135285 0.035154264 0.049821977
27 0.059450075 -0.1722429 0.06387667 -0.046757318 -0.03495919 -0.17962164 -0.04655208 0.010791425 0.09610397 -0.019013844 0.25597548 -0.045428146 0.029893074 -0.047496613 0.028605958 -0.084336296 -0.03825625 0.04917987 -0.13903096 -0.06612348 0.08508424 0.09821725 0.07942805 -0.023332141 -0.07043538 0.07685467 -0.0721436 0.15751362 0.0040820385 -0.11078579 -0.26089332 -0.052392635 0.11330496 -0.066352464 0.013369797 0.11426349 0.08672659 -0.041857664 0.03832309 0.078518525 -0.06635129 0.081918344 -0.099684365 -0.11182562 0.0444039 -0.030979259 0.10511483 -0.15550502 0.08383436 0.20095481 0.12953733 0.20908932 0.102915004 -0.01954069 0.043117225 0.10277035 0.22208181 -0.038469996 -0.07215444 0.14020433 0.1011129 -0.0870267 0.079894364 0.043445826 0.08581764 0.031182138 0.20534134 0.029575508 -0.053741366 0.02388803 0.14273362 -0.051697843 -0.061296277 -0.052576646 0.1730443 -0.20517746 0.0871011 -0.023063406 0.038874287 0.12836787 0.17663941 -0.14599079 0.07199475 0.22730741 0.036683895 0.17302054 0.17025146 -0.145814 0.052368198 0.13875508 -0.100655004 0.051978286 0.07378969 0.0671587 0.13173218 0.17348884 -0.2735977 -0.44218063 -0.06789661 -0.13811637 -0.19333737 -0.029542277 0.1437896 0.13021617 0.14746954 -0.11061925 0.023149671 -0.19028632 -0.004144715 -0.022900607 0.015052687 0.08593804 0.058356006 0.18082412 -0.030098846 -0.006791506 -0.06958002 0.033330794 0.060266916 0.22500269 -0.041365676 -0.03667043 0.03558877 0.09720076 0.16299348 -0.15209608 -0.11403049 0.03637252
18 0.051955853 0.027311984 0.258343 -0.05918357 0.054382745 -0.08668288 0.093022026 -0.07898322 -0.15717942 -0.01725185 0.25343236 -0.1282073 -0.15922605 -0.22187412 0.01366194 -0.19458166 -0.054880165 -0.03801753 -0.040719558 -0.03983965 0.033021234 0.0027197427 0.06616226 0.08246628 -0.120296136 0.1531485 -0.019803708 0.125513 0.08892408 -0.046281423 -0.24034175 0.14120233 -0.10717188 -0.046242252 0.006360205 -0.03286633 0.12815845 0.17829207 0.1320677 -0.05511972 0.09997501 0.065453485 -0.12034372 0.040438186 0.07304573 0.06440374 0.026585951 -0.12267711 -0.0959407 0.045192715 0.1430256 -0.05008537 0.107057504 0.061029397 0.08566632 -0.061273895 0.13898149 -0.08228629 -0.09757643 -0.07841334 0.11842759 -0.12311393 0.16712151 0.04972342 -0.07073228 -0.10185227 0.048327435 0.09442898 -0.025238138 -0.12055128 0.059455175 0.02813423 -0.068762705 -0.013285051 -0.095251665 0.11613087 -0.002561398 -0.053928092 0.0018773759 0.069739595 0.00095692935 -0.059914093 0.036082573 0.01403549 0.013915384 -0.0105678495 0.16018781 -0.020031203 0.14930142 0.08306026 -0.07547865 0.004939286 0.02818018 -0.003115572 0.012028668 -0.050933875 -0.16101028 -0.16413087 0.08947763 -0.10489973 -0.09252065 0.022525817 0.055720203 0.049867135 0.09705131 -0.11737814 0.061509784 -0.13487193 0.047039904 -0.06102915 0.034882233 -0.05386841 0.06256558 -0.08444654 0.008826568 0.015899846 0.055277813 0.2641153 0.1010369 0.18000185 0.11265711 0.019210884 0.031496856 0.098894276 -0.065543234 -0.19212486 -0.08420214 0.024647878
19 0.03625716 -0.1006795 0.09896937 -0.053538356 0.014624085 -0.09466097 0.009721988 -0.018206209 0.0118465815 -0.03346492 0.25438932 -0.060911298 -0.06841337 -0.12153633 0.0015004167 -0.113897406 -0.00063413417 0.03643073 -0.09907011 -0.09442144 0.041717067 0.09181455 0.0997681 -0.018070236 -0.0476178 0.08888958 -0.055719264 0.10011821 0.038171273 -0.06601066 -0.22465824 0.0068912846 0.01938349 -0.06345062 0.008262055 0.05267766 0.11967241 -0.003743914 0.08566235 0.027264047 0.013459195 0.030725425 -0.09871267 -0.105213664 0.04715519 -0.013004821 0.06848279 -0.19512743 0.025707165 0.10569173 0.09574982 0.08976723 0.08817113 0.063047856 0.08044278 0.018594151 0.15429002 -0.048492312 -0.07945251 0.06570366 0.11755466 -0.10207153 0.100961804 0.056711573 0.01429629 -0.017021207 0.16351733 0.099235766 -0.090862066 -0.011194658 0.12628433 -0.027226081 -0.0655669 -0.021492682 0.07517463 -0.10956155 0.020179061 -0.026934056 -0.0012638791 0.0839281 0.14157048 -0.10193597 0.043825805 0.18129107 0.06794221 0.1485374 0.12783967 -0.08943929 0.049307384 0.1469898 -0.102469064 0.05078298 0.045367487 0.02853842 0.13765739 0.10440351 -0.20783809 -0.32535237 -0.022288837 -0.13800733 -0.10129517 -0.018478563 0.10612302 0.121308066 0.16310625 -0.14531004 0.04706683 -0.1603325 0.022579448 -0.10096733 0.040206272 0.055032138 0.052408516 0.1359158 0.014819346 0.01966362 -0.038375765 0.0839012 0.059035577 0.19018154 0.0092143 0.0061454754 0.053894885 0.10163828 0.11448315 -0.17360745 -0.085742496 0.034394372
10 0.027466703 -0.01842685 0.18573676 -0.07571915 0.012814409 -0.12441252 -0.0153937945 -0.03380231 -0.05203404 -0.035642054 0.17773306 -0.057048082 -0.093825914 -0.12518136 -0.018991139 -0.111531034 -0.023660917 -0.0036741183 -0.06519695 -0.03339509 0.04960464 0.017610999 0.09607243 0.060269732 -0.081278384 0.13980131 -0.038425785 0.1499135 0.08094627 -0.12331228 -0.24556583 0.101509176 -0.0705867 -0.06788257 0.033313703 0.03373369 0.1006689 0.0946074 0.07134653 0.0048358194 0.010318212 0.06444938 -0.09038934 -0.028320156 0.08243098 0.017452914 0.102859564 -0.14375821 -0.0291505 0.1384086 0.13971111 0.07108573 0.105413914 0.021849053 0.069568835 0.0039315703 0.18634303 -0.045780215 -0.078520015 -0.015113637 0.12785503 -0.079783715 0.12968509 0.009985664 0.019000385 -0.045727797 0.13745818 0.068860225 0.003871333 -0.01985459 0.09959366 -0.0144710615 -0.06667406 -0.052163888 0.010623887 0.0120763555 0.0172128 -0.023157647 0.015399305 0.106895946 0.071274266 -0.11843112 0.07160044 0.08413666 0.047358245 0.09212623 0.12441226 -0.0893956 0.056121375 0.095719784 -0.08602224 0.021652203 0.069462426 0.024527252 0.043649074 0.044986155 -0.19756176 -0.28734338 0.044531435 -0.12939708 -0.15503998 0.02962126 0.036937658 0.11123493 0.16564421 -0.12735298 0.04411019 -0.21043783 -0.0056698984 -0.08488055 0.01998414 -0.04077992 0.05991495 0.0041599837 0.028154261 -0.06941337 0.0100365635 0.15444179 0.06672595 0.16011398 0.036528736 0.015839636 0.012032175 0.043549433 0.024453664 -0.106883734 -0.09476153 0.025897503
13 0.05235108 0.013896262 0.31899258 -0.06987273 0.06725679 -0.11258667 0.1319787 -0.08871985 -0.23284915 0.004072476 0.33368665 -0.16747232 -0.22819442 -0.28621298 0.020579861 -0.29431683 -0.04439077 -0.005235342 -0.04846233 -0.06836338 0.016184317 0.0059632617 0.050284322 0.09392128 -0.124692336 0.1476426 -0.02346261 0.14799021 0.08878179 -0.035015643 -0.2755595 0.17006737 -0.09217581 -0.0442047 0.015538077 -0.03212681 0.15893237 0.16588816 0.13661148 -0.019527031 0.12480371 0.060927603 -0.15095119 0.05449839 0.059374783 0.06737906 0.012990151 -0.15156317 -0.114109166 0.006506568 0.13195857 -0.080023125 0.09581211 0.07102821 0.109285735 -0.08253642 0.08061055 -0.124879956 -0.08664602 -0.05712753 0.14344163 -0.12320298 0.19003089 0.08232811 -0.11691364 -0.09809826 0.010344782 0.106482945 -0.055855695 -0.1515579 0.05502748 0.025342505 -0.07208337 -0.021968907 -0.0851654 0.105327606 -0.021593865 -0.083045445 0.0062534 0.02298115 -0.018499453 -0.042690307 0.04332218 -0.011723954 0.005014225 -0.015265785 0.16657825 0.0051649543 0.16090685 0.08835504 -0.05719859 0.035137802 0.0510294 0.018493565 0.020400057 -0.023645714 -0.13079123 -0.13811395 0.08664697 -0.06448789 -0.03934935 0.046794485 0.05517148 0.003715486 0.062789425 -0.09165248 0.042627145 -0.10346102 0.057153706 -0.03148414 0.021878991 -0.055102814 0.07236903 -0.07953847 0.012754603 0.033298418 0.08315285 0.23978859 0.06392898 0.14898959 0.119331606 0.01723874 0.01306672 0.11057998 -0.07809327 -0.17298257 -0.0518888 0.039696347
23 0.008080382 -0.08933056 0.07304498 -0.058701333 0.0040862476 -0.078887105 -0.013473753 -0.0016724913 0.053547237 -0.033639327 0.1911479 -0.029037464 -0.02727437 -0.051434126 -0.022310436 -0.06851521 0.031519424 0.052234776 -0.116771735 -0.084515974 0.05380315 0.123096764 0.1236469 -0.013556691 -0.07228814 0.1428627 -0.07486362 0.09197537 0.05809234 -0.08274682 -0.2958443 0.040024333 -0.028553296 -0.05331209 0.014451116 0.06875002 0.13859081 0.007990254 0.08984144 0.0066305613 -0.01952398 0.062865764 -0.102645524 -0.13139743 0.07741338 -0.020199228 0.052198905 -0.22485973 0.029961353 0.11048191 0.08442519 0.10178021 0.10077298 0.0656123 0.07722925 0.015259694 0.1511887 -0.018014552 -0.06966774 0.03685286 0.11292608 -0.10683405 0.079736285 0.027037827 0.051717337 -0.020708472 0.16122168 0.0988762 -0.07810316 -0.008289908 0.12618677 -0.034754075 -0.086945556 -0.03420599 0.0767457 -0.10803076 0.031650778 -0.009348274 -0.027575925 0.102502294 0.1221061 -0.10140509 0.043788686 0.19487706 0.06250179 0.12225382 0.10788573 -0.10014859 0.026218474 0.14223082 -0.08627524 0.024178263 0.010989982 0.015400578 0.1526463 0.09751497 -0.21733606 -0.32306165 -0.03315712 -0.1367241 -0.11212123 -0.03384016 0.07969159 0.13696314 0.18340766 -0.13056013 0.031030856 -0.16885863 0.010672484 -0.1098839 0.050854947 0.040401403 0.052373152 0.12971851 0.009927203 0.009046482 -0.047726776 0.04636513 0.045466334 0.13391641 -0.0032245354 0.009274279 0.052855294 0.06714997 0.10460494 -0.12524168 -0.08460388 0.035574157
22 0.025142776 -0.012983415 0.20270349 -0.03634013 0.03665762 -0.053904608 0.08064157 -0.0642959 -0.16637583 0.00033915238 0.24312901 -0.121237524 -0.1547164 -0.194587 -0.011089758 -0.21921843 -0.029726218 0.007829746 -0.08415395 -0.08214653 0.009755575 0.03454688 0.060454402 0.070670426 -0.12677884 0.12973158 -0.044801723 0.09711325 0.053898644 -0.03142629 -0.27770966 0.15247424 -0.09168365 -0.059999164 0.018137934 -0.02645527 0.18004297 0.1696768 0.14454 -0.039674584 0.12751167 0.05577099 -0.15640733 0.020748997 0.04942641 0.069491416 -0.006579296 -0.19058342 -0.09077269 0.016697599 0.12043325 -0.046166357 0.11300173 0.093067415 0.10956628 -0.0895522 0.09077427 -0.118408136 -0.08842393 -0.03926432 0.15356344 -0.13978748 0.1776256 0.08466234 -0.11551363 -0.104234576 0.024926648 0.14071636 -0.09284172 -0.16872893 0.06494301 0.021704568 -0.08333627 -0.016627079 -0.07100189 0.07768156 -0.018796187 -0.07361167 -0.032360382 0.0488923 0.009822888 -0.026301803 0.04990348 0.023158163 0.016691873 0.0128685795 0.1613676 0.008880257 0.13796276 0.10301311 -0.075858 0.037767734 0.023485756 0.01780656 0.046917744 -0.0034707398 -0.13752267 -0.14028576 0.05517811 -0.084307805 -0.033264004 0.015362429 0.06499648 0.025506217 0.086924024 -0.10485893 0.050192256 -0.07902696 0.06740291 -0.06347979 0.038047314 -0.01470049 0.08905895 -0.0403496 0.018853359 0.04329903 0.05833058 0.21867102 0.06297243 0.16806293 0.12351278 0.019859798 0.03924021 0.10311775 -0.030433767 -0.17826921 -0.040971853 0.044191524
16 0.03631647 -0.15374652 0.096444815 -0.06358621 -0.015332105 -0.11264174 -0.028588582 -0.009432911 0.03789724 -0.03756383 0.24543583 -0.030197568 -0.047686387 -0.10823231 -0.019518008 -0.12938556 0.0027999768 0.056379363 -0.13573174 -0.13137536 0.05901987 0.09988043 0.121327125 -0.022817811 -0.034322906 0.07417879 -0.058030717 0.14082347 0.042604413 -0.107519396 -0.2416586 0.01254368 0.0439996 -0.069858834 -0.009292192 0.07100624 0.15729228 -0.012315606 0.08711523 0.05651838 0.002450846 0.022949979 -0.107382126 -0.13819854 0.050667588 -0.03837835 0.10550815 -0.21840312 0.0686959 0.14186719 0.07071019 0.12148181 0.051990684 0.05412368 0.047787763 0.053554587 0.14735384 -0.08113658 -0.068819806 0.13105713 0.14125973 -0.084547415 0.07513327 0.040397804 0.0240479 0.017714597 0.18193978 0.08570353 -0.10852905 0.0020769176 0.16069485 -0.044577017 -0.05991914 -0.022720436 0.13498445 -0.16085505 0.03532037 -0.050914563 0.051690288 0.099115394 0.14969099 -0.11631861 0.0484334 0.19161907 0.03194032 0.20623875 0.11287057 -0.10010123 0.041949403 0.14274131 -0.099851675 0.07877804 0.09832909 0.045383096 0.13435346 0.1539617 -0.2236919 -0.38542083 -0.08104065 -0.10381579 -0.13789672 0.022197178 0.1156298 0.1326958 0.16714595 -0.14977293 0.039633818 -0.20091064 0.011530115 -0.06876066 0.014805823 0.05836229 0.069667205 0.18289988 0.025968555 -0.004934996 -0.04621223 0.06537419 0.03621088 0.16477527 -0.011840569 -0.015425554 0.04211255 0.094666235 0.1289668 -0.13938685 -0.095343865 0.045806933
15 0.03835775 -0.14965 0.059470132 -0.05774883 0.008599538 -0.09114789 -0.004263978 0.009923983 0.06603249 -0.027565988 0.2744364 -0.0681359 -0.043787066 -0.10587177 0.002468819 -0.11620346 0.03255031 0.078769386 -0.14764865 -0.10092706 0.045761585 0.14171854 0.10025273 -0.06056853 -0.061103813 0.070286244 -0.08373415 0.054847203 0.012117357 -0.052543256 -0.27349234 -0.025051614 0.046542794 -0.06264008 -0.0076604593 0.08985726 0.15807699 -0.04832823 0.08642755 0.030809388 0.003282083 0.035431944 -0.09842886 -0.14819357 0.020025207 -0.031860396 0.04912611 -0.24961329 0.048351757 0.080351785 0.0857843 0.13228725 0.103851244 0.074867025 0.09733133 0.037082944 0.15581267 -0.027982322 -0.061337497 0.09461014 0.09615525 -0.110708974 0.0712755 0.066269375 0.02599198 0.010693855 0.16967537 0.097849585 -0.14235227 3.1974254e-05 0.13836797 -0.025962897 -0.07271813 0.011899037 0.11428974 -0.17757258 0.023730554 -0.032651577 -0.01457506 0.07327827 0.17785397 -0.088904075 0.04343785 0.2135454 0.06754459 0.16325785 0.13401507 -0.07537107 0.03546021 0.16435234 -0.09860629 0.0585939 0.01352498 0.024936192 0.18600045 0.1455569 -0.20433575 -0.30911773 -0.077529 -0.12926932 -0.05462014 -0.039073788 0.12551579 0.11716094 0.16674258 -0.12129908 0.030612335 -0.12092249 0.024975726 -0.08888478 0.051016156 0.113918275 0.04619779 0.20720372 0.0066068023 0.059940763 -0.062780075 0.020633621 0.05042749 0.20133866 -0.0011850442 -0.012220623 0.07875237 0.10333158 0.1787325 -0.18377213 -0.06630401 0.06005476
21 0.033979617 -0.16975708 0.097562745 -0.06880199 -0.004032904 -0.102442294 0.0010192469 -0.025744136 0.023903204 -0.027596332 0.30697498 -0.06061757 -0.07429312 -0.12905176 -0.009411429 -0.16430475 0.024226641 0.07366755 -0.1332196 -0.14719667 0.04965302 0.113352485 0.10808999 -0.032784555 -0.049918775 0.07746387 -0.07804196 0.09036149 0.027036393 -0.085679606 -0.2519651 0.0071766847 0.05088879 -0.06429522 -0.0052207927 0.07161353 0.14718924 -0.038316898 0.07785361 0.043168187 0.024822336 0.038899183 -0.12650874 -0.13970535 0.024170684 -0.033168934 0.057243243 -0.22886503 0.045125544 0.095644265 0.09133593 0.09308334 0.0761641 0.06879561 0.07712338 0.025215156 0.122283466 -0.07822103 -0.07138445 0.11776878 0.14751147 -0.10589824 0.08212463 0.07691354 -0.0037520165 -0.0016270683 0.15586883 0.11099668 -0.13091072 -0.040399063 0.1351745 -0.03630934 -0.061670862 -0.016277533 0.10956378 -0.14194575 0.025591362 -0.043042146 0.003675185 0.06468786 0.14398617 -0.07916449 0.033188935 0.17804243 0.04823331 0.15866005 0.12000946 -0.082632944 0.042258028 0.14596215 -0.08988034 0.07923272 0.051386483 0.02894105 0.16423503 0.1321999 -0.1907268 -0.3231108 -0.07258075 -0.102420904 -0.066232644 -0.0172374 0.12739699 0.09349389 0.15665984 -0.13512632 0.02066049 -0.121972494 0.051159885 -0.073587716 0.033004537 0.07203808 0.07140142 0.18388098 0.007651649 0.046299335 -0.050020926 0.05175529 0.03718892 0.17793833 0.00086660846 -0.005717677 0.05391346 0.10178282 0.1325513 -0.15226068 -0.077974446 0.03987211
12 0.053688902 0.0117671 0.21609333 -0.037244253 0.06740124 -0.090263955 0.1334318 -0.052651517 -0.1172134 0.009295064 0.31386897 -0.17272995 -0.13454223 -0.2221693 0.035977244 -0.19973339 -0.024275994 0.007083941 -0.07597882 -0.033770386 0.021702198 0.07228182 0.038250238 0.039861243 -0.15528046 0.1505341 -0.052074466 0.07538058 0.047406547 0.024979385 -0.3111404 0.10455086 -0.083012685 -0.030299727 0.008810901 0.002398637 0.15478082 0.13945566 0.15604128 -0.04703916 0.091028735 0.08346545 -0.12487399 0.016899092 0.033834964 0.07993279 -0.041815948 -0.16744342 -0.11059105 -0.007534656 0.13361916 -0.03698293 0.14451757 0.08335837 0.1342566 -0.08567969 0.122017175 -0.05883368 -0.09847073 -0.079673685 0.090502 -0.14929691 0.15802309 0.071818806 -0.06506218 -0.11503207 0.019011239 0.10122133 -0.08532507 -0.12963666 0.042454924 0.027264513 -0.099458426 -0.00022238714 -0.08164716 0.035724368 -0.0033314256 -0.0402267 -0.07445105 0.0427742 0.026051208 -0.029638223 0.040149976 0.05594334 0.048401885 -0.03307529 0.18442436 -0.007261489 0.14628534 0.12270378 -0.077693306 -0.0012233007 -0.052978925 0.008462601 0.076589964 -0.033346802 -0.13658105 -0.10644969 0.06800349 -0.10736993 -0.01548071 -0.050263718 0.07882319 0.019586034 0.0646354 -0.086683504 0.03423578 -0.040254083 0.06236552 -0.054813508 0.048623268 0.01491005 0.051785897 -0.039267756 -0.014368901 0.08886945 0.02846268 0.17122401 0.067651644 0.15615156 0.10452649 0.008626953 0.04743811 0.11675023 -0.014390675 -0.20602293 -0.023634974 0.040895324
